fish,0.2559,-0.31452,-1.0079,0.1434,0.52982,0.31531,-0.82169,0.0060026,1.5235,-0.40637,0.20401,0.93042,2.061,0.73117,0.44506,-0.0043559,1.2895,-0.16854,-1.1219,-0.80836,-0.19725,-1.2056,1.2739,0.23962,0.44387,-0.77988,0.1557,0.28534,1.0253,-0.61694,2.5009,-0.41019,0.57532,0.51033,-0.060849,0.40419,-0.34696,0.38221,0.629,-0.22291,-0.32009,0.21292,1.0723,0.32437,1.3304,0.54586,-0.22236,-0.80589,0.16487,0.29792,animals
bird,0.78675,0.079368,-0.76597,0.1931,0.55014,0.26493,-0.75841,-0.8818,1.6468,-0.54381,0.33519,0.44399,1.089,0.27044,0.74471,0.2487,0.2491,-0.28966,-1.4556,0.35605,-1.1725,-0.49858,0.35345,-0.1418,0.71734,-1.1416,-0.038701,0.27515,-0.017704,-0.44013,1.9597,-0.064666,0.47177,-0.03,-0.31617,0.26984,0.56195,-0.27882,-0.36358,-0.21923,-0.75046,0.31817,0.29354,0.25109,1.6111,0.7134,-0.15243,-0.25362,0.26419,0.15875,animals
dog,0.11008,-0.38781,-0.57615,-0.27714,0.70521,0.53994,-1.0786,-0.40146,1.1504,-0.5678,0.0038977,0.52878,0.64561,0.47262,0.48549,-0.18407,0.1801,0.91397,-1.1979,-0.5778,-0.37985,0.33606,0.772,0.75555,0.45506,-1.7671,-1.0503,0.42566,0.41893,-0.68327,1.5673,0.27685,-0.61708,0.64638,-0.076996,0.37118,0.1308,-0.45137,0.25398,-0.74392,-0.086199,0.24068,-0.64819,0.83549,1.2502,-0.51379,0.04224,-0.88118,0.7158,0.38519,animals
tiger,0.33183,-0.60256,-0.046032,0.89941,0.26504,-0.02695,-0.89378,-0.21996,0.28162,-0.7974,-0.15519,-0.15385,-0.4443,-0.060597,0.17669,0.49661,1.0924,0.6526,-1.4514,0.5046,-1.4857,0.60573,0.51944,-0.39546,0.2653,-1.0493,-0.79394,-0.0085854,-0.2987,-0.41866,2.0018,-0.078285,-0.72413,1.3828,0.5019,0.35222,-0.37933,-0.81655,-0.59159,-1.0502,-0.55532,-0.46533,-0.3038,0.11061,1.3216,-0.34734,0.039552,0.046421,-0.086983,-0.45584,animals
cat,0.45281,-0.50108,-0.53714,-0.015697,0.22191,0.54602,-0.67301,-0.6891,0.63493,-0.19726,0.33685,0.7735,0.90094,0.38488,0.38367,0.2657,-0.08057,0.61089,-1.2894,-0.22313,-0.61578,0.21697,0.35614,0.44499,0.60885,-1.1633,-1.1579,0.36118,0.10466,-0.78325,1.4352,0.18629,-0.26112,0.83275,-0.23123,0.32481,0.14485,-0.44552,0.33497,-0.95946,-0.097479,0.48138,-0.43352,0.69455,0.91043,-0.28173,0.41637,-1.2609,0.71278,0.23782,animals
lion,0.60093,0.012934,-0.61032,-0.13871,1.2507,0.10128,-0.20073,-1.1283,0.60857,-0.16666,0.22419,0.61781,0.50102,-0.22303,-0.011922,0.24229,0.82199,0.5748,-1.9703,0.044589,0.22157,-0.26673,-0.005156,-0.36311,-0.42483,-0.79237,-1.557,0.22124,-0.32143,-0.46747,1.0604,0.84237,0.045337,0.86075,-0.085506,0.0058815,-0.16237,-1.0329,-0.25763,-0.65854,-0.13647,0.3653,-0.61384,-0.54004,0.24051,-0.23007,-0.31155,-1.3485,0.4327,-0.34512,animals
elephant,0.53238,-0.26987,-0.72294,-0.45325,1.0188,0.31013,-0.67626,-1.3509,1.4854,-0.51832,0.26574,0.10283,0.94469,-0.12249,0.54467,0.38361,1.0307,0.59792,-1.1687,0.45008,-0.74563,-0.2027,-0.36233,-0.084513,0.4107,-0.88857,-0.17601,0.44655,-0.29449,-0.72429,1.1036,0.16668,-0.15839,0.63755,-0.10105,0.8701,0.24232,-0.71078,-0.41333,-0.44293,-0.68612,0.11676,-0.31466,0.1242,1.1761,-0.45089,0.17163,-0.93316,0.3179,-0.85743,animals
monkey,0.28704,-0.60904,-0.74821,0.17686,0.92118,0.36994,0.10464,-1.0945,0.45246,0.75508,0.041291,0.61758,0.82508,0.7044,0.12365,-0.081073,-0.060157,0.90245,-1.2025,0.04606,-0.57476,-0.15483,0.45276,-0.087841,0.49575,-1.0462,-0.59215,0.40345,-0.11113,-1.3799,0.97611,-0.312,-0.75014,0.44309,-0.0056967,0.44116,0.073432,-0.76681,0.12938,-0.54472,-0.74424,0.19052,-0.80318,0.54953,1.1741,0.37876,0.93837,-1.0941,0.2474,-0.69492,animals
zebra,0.55187,-0.55757,-0.87654,0.19655,-0.30563,0.5857,-0.98501,-1.1661,1.1107,-0.17984,0.5406,0.55565,1.1487,-0.2913,-0.5693,0.24325,0.18264,-0.55738,-0.85243,-0.19324,-0.79782,0.25598,0.22989,0.29796,-0.5053,0.3876,-0.28487,0.64152,0.75176,-1.4718,0.13144,-0.48219,-0.077943,0.92818,-0.017554,-0.63378,-0.22195,-1.052,-0.36775,-0.36997,0.70562,-0.041422,0.63393,0.45642,0.34611,-0.48998,0.40178,-1.0439,-0.37666,0.15733,animals
giraffe,0.8454,-0.20614,-1.1094,-0.38644,0.7915,0.63976,-0.82535,-1.3888,0.72605,-0.29175,0.88466,0.029209,0.93826,0.21106,0.0059474,0.8038,0.35371,0.086044,-0.54181,0.49454,-1.217,0.6138,-0.66195,0.08868,-0.21948,0.61198,-0.3132,0.83538,-0.10864,-0.70175,-0.70622,0.18821,0.15043,0.97725,0.027834,0.10375,0.17843,-0.40562,0.12374,-0.25376,0.20968,0.1656,0.17587,0.44022,0.62472,-0.36059,0.33775,-0.52014,-0.039747,-0.22855,animals
france,0.66571,0.29845,-1.0467,-0.66932,-0.78082,-0.00013007,-0.17931,0.3711,-0.18622,-0.40535,0.98644,-0.60545,-0.94571,-0.69207,0.56681,-0.3861,0.027634,-1.2464,-0.73561,-0.52222,-0.061766,0.16771,-0.37462,0.4225,-0.63095,-1.636,-0.25094,0.04495,-0.39758,0.98099,2.6293,0.8348,-0.77338,0.39402,-0.57976,-1.029,-0.26709,0.98714,-0.51029,-0.42477,1.3956,-0.029347,2.2295,-1.7079,0.025562,0.6906,-0.579,-0.17824,0.42916,-0.5394,countries
germany,0.31098,0.05573,0.27293,-0.79354,0.15301,0.68547,-0.042667,0.23203,-0.90976,-0.71177,1.1649,-1.1234,-1.2657,-0.3255,0.96688,0.25919,0.57671,-0.55244,-0.73962,0.57585,0.67452,-1.1339,-0.74452,0.7491,-0.20376,-2.0823,0.081193,-0.29871,-0.64778,0.17616,2.4315,0.79447,0.40519,-0.011954,-1.1833,-0.91463,-0.013852,1.4251,-0.32726,-0.2092,0.76412,-0.55271,1.5657,-1.4095,0.51719,0.40492,-0.07026,0.2994,-0.34246,-0.28954,countries
canada,-0.72491,0.40524,-0.35895,0.65977,-0.27592,0.60496,-1.217,0.14638,0.85096,-0.74799,1.0267,-0.0491,0.40083,-0.11647,0.14594,0.32253,0.38807,-0.72773,-1.0039,-0.015682,0.66613,-0.30068,-0.01085,0.57758,-0.26283,-1.3647,0.17607,-0.54651,-0.40292,-0.14113,2.3757,0.60026,0.072329,-0.4139,-0.30918,-1.166,-0.15287,-0.18237,-0.075067,-0.30076,-0.073329,-0.19173,1.1995,-1.1107,-0.57754,1.011,-0.81894,-0.11035,0.015073,-0.03693,countries
mexico,0.41189,-0.093082,-0.18871,1.0692,-0.53433,-0.99734,-0.55511,0.32821,0.13527,0.56191,0.4153,-0.76649,0.64603,-0.18546,0.78123,-0.89799,-0.49891,-0.2208,-0.13527,0.18387,-0.71566,-0.76888,-0.080441,0.00049022,-0.52532,-1.8385,0.17512,0.33196,0.24221,-0.56305,2.6126,-0.0023889,-0.5464,-0.73415,-0.46359,-0.75214,-1.2924,0.2636,0.28462,0.026416,-1.0242,0.57252,1.4757,-1.2457,-0.62902,0.40549,-0.41026,-0.60271,0.13786,-0.079502,countries
spain,1.1595,0.21344,-0.36298,1.0122,-0.18473,-0.30199,-0.35055,0.8532,-0.71617,0.35008,1.1401,-0.58245,-0.33837,-0.36144,1.1036,-0.85338,-0.37948,-1.2075,-0.44249,0.10017,-1.0162,-0.76619,-0.6012,0.76406,-0.20989,-1.0587,0.4871,-0.63722,-0.35631,0.30415,2.6428,0.52948,-0.64095,0.11115,-0.44187,-0.54406,-0.67595,0.69745,-0.37146,-0.19252,0.54152,0.29873,1.4091,-1.291,-0.57823,0.52369,-0.44592,-0.61992,0.56161,-0.94449,countries
brazil,0.014697,-0.4585,-0.049365,1.1068,-0.34228,-0.99984,-0.59754,-0.021446,0.070466,1.0038,1.3814,-0.15615,-0.04429,-0.64585,1.2024,-0.35262,0.094759,-0.26553,-0.16363,-0.29023,-0.90477,-0.64781,-0.23873,0.42291,0.019089,-1.194,0.68176,-0.019443,-0.42695,0.073599,2.5519,0.61103,-0.57614,0.053781,-0.22584,-0.67029,-0.91667,0.71881,0.012405,-0.55416,-0.52862,0.33267,1.2562,-1.3472,-0.43544,1.2502,-0.12576,-0.060888,0.79752,-1.1951,countries
argentina,0.30309,-0.24835,-0.62801,1.068,-0.68397,-0.84683,-0.24429,0.69909,-1.1685,1.0031,1.0191,0.10211,-0.079516,-0.13184,1.1001,-0.91619,0.016927,-0.8497,-0.2852,0.28059,-1.1384,-0.78769,-0.43732,-0.061458,-0.39915,-0.76221,1.0491,-0.13895,-0.38365,-0.27953,2.5542,0.17744,0.011827,0.29512,-0.5911,-0.4105,-0.78927,0.40803,0.30279,-1.2068,-0.37791,-0.034194,1.8297,-1.5049,-0.38398,0.6953,-0.2524,-0.34135,0.60223,-0.84916,countries
usa,-1.256,0.67149,0.1418,1.5068,-0.54231,-0.014556,-1.0648,-0.60224,0.55127,-0.67244,0.39114,-0.55533,-0.54794,-0.37832,0.35629,0.15954,0.030876,0.31742,-0.87051,0.21663,-0.30207,0.12983,0.19678,0.79039,-0.56554,-0.82879,-0.19614,-0.82778,-0.6898,-1.0809,1.8179,-0.26586,0.065575,-0.1093,-0.66603,-1.1031,0.12164,-0.29828,-0.0003941,-0.72735,0.905,-0.74758,0.76054,-0.4513,0.10696,0.8653,-0.43969,-0.47675,-0.91554,0.9724,countries
chile,0.33182,-0.16513,-0.54672,1.3101,-0.21218,-1.0186,0.37209,0.74408,-0.44245,0.91286,1.1364,-0.14136,0.91118,0.13516,0.50375,-0.58401,-0.28697,-0.28799,-0.099173,0.34281,-0.62559,-0.6669,0.55828,-0.31568,-0.70793,-0.62918,0.62175,0.17831,-0.15781,-0.13469,2.2996,-0.14002,-0.5948,-0.053659,-0.55316,-0.49428,-0.91637,0.47785,0.73395,-0.33678,-0.38148,0.33915,1.4632,-1.6686,-0.45462,1.1551,-0.45897,-0.31092,-0.08207,-0.52606,countries
peru,0.56325,-0.10534,-0.21799,1.335,-0.35513,-0.98961,-0.02227,0.44863,-0.32069,0.72776,0.77992,-0.43826,0.70535,-0.20057,0.44197,-0.6322,-0.58263,0.019518,0.25073,0.66106,-0.93496,-0.023471,0.074304,-0.11181,-0.20324,-1.1545,0.39452,0.09372,-0.27182,-0.18068,1.8429,-0.37776,-1.1332,-0.17605,0.076909,-0.25296,-1.2729,-0.15811,0.16515,-0.32012,-0.76888,0.37513,1.3977,-1.3739,-0.57559,0.60141,-0.10711,0.10838,0.44186,-1.4398,countries
white,-0.68652,0.80125,-0.6124,-0.1512,0.997,0.81749,-1.2089,-1.0221,-0.94054,-1.2689,-0.68195,-0.12212,0.6122,0.045025,-0.10808,0.12482,-0.17278,-0.45383,-0.37728,-1.4081,-0.42975,0.31746,0.61391,-0.76399,-0.75504,-1.5605,-0.14924,1.2023,0.36776,-0.49137,2.6151,-0.37237,-0.80641,-0.56119,0.028241,-0.20089,-0.36429,-0.51476,-0.23074,-0.72258,-0.086035,0.47341,-0.035288,-0.04892,0.85295,-0.25883,-0.48159,-0.79552,-0.12247,-0.098168,colors
black,-0.96256,0.65329,-0.55152,-0.41065,0.80223,0.9833,-0.96007,-1.029,-0.47013,-0.6812,0.071232,-0.25591,0.60577,0.29845,-0.1837,-0.26064,-0.038707,0.11412,-0.72028,-1.2694,-0.73858,0.3357,0.44293,0.02566,-0.97692,-1.6867,-0.88665,0.75824,0.18836,-0.6932,2.6144,0.11718,-0.45564,-0.42953,-0.052095,0.11656,-0.66685,-0.86056,-0.093886,-0.74592,-0.062858,0.54547,0.28987,-0.26887,0.71881,-0.074307,-0.18512,-1.2621,-0.3246,-0.56563,colors
red,-0.12878,0.8798,-0.60694,0.12934,0.5868,-0.038246,-1.0408,-0.52881,-0.29563,-0.72567,0.21189,0.17112,0.19173,0.36099,0.032672,-0.2743,-0.19291,-0.10909,-1.0057,-0.93901,-1.0207,-0.69995,0.57182,-0.45136,-1.2145,-1.1954,-0.32758,1.4921,0.54574,-1.0008,2.845,0.26479,-0.49938,0.34366,-0.12574,0.5905,-0.037696,-0.47175,0.050825,-0.20362,0.13695,0.26686,-0.19461,-0.75482,1.0303,-0.057467,-0.32327,-0.7712,-0.16764,-0.73835,colors
green,-0.5767,0.86953,-0.49108,-0.1078,0.65377,0.32548,-1.326,-1.0114,-0.20658,-0.79937,-0.41455,0.084769,0.25426,-0.10999,-0.64696,0.17882,0.68277,-0.019661,-0.59745,-1.0414,-0.55979,-0.18503,0.49271,-0.53623,-0.63925,-0.91267,0.15709,1.3784,0.45686,-0.76237,2.5792,-0.22079,-0.59114,-0.17395,0.27835,0.30161,-0.12137,0.21278,0.23306,-0.74012,0.12318,-0.028115,-0.421,-0.60167,0.71802,0.19434,-0.11682,-1.1335,0.49009,-0.020496,colors
blue,-0.83751,0.69563,-0.51408,0.23689,0.59192,-0.027491,-1.2076,-0.98796,-0.27658,-0.4618,0.4715,0.13072,0.50393,0.50556,-0.66766,0.069073,-0.60984,-0.22776,-1.2481,-1.3521,-0.56051,-0.17952,0.22886,-0.69244,-1.1734,-0.98778,-0.81551,1.5513,0.36517,-1.1162,2.632,0.21987,0.10695,0.28438,-0.10348,-0.29667,-0.17645,-0.75838,0.085523,-0.83641,-0.12174,-0.063165,-0.072053,-0.30712,0.61861,-0.30867,0.012374,-1.1966,0.041525,-0.23966,colors
yellow,-0.18063,0.76194,-0.53856,0.07822,0.3489,0.38896,-0.51983,-0.66888,0.26164,-0.60095,0.39925,-0.093446,0.67184,0.011413,-0.24516,-0.52065,-0.67089,-0.21113,-0.89741,-1.4743,-1.2168,-1.0192,0.8226,-0.37338,-0.53138,-0.80159,-0.15924,1.9076,0.31224,-0.83472,2.2394,0.31135,-0.21577,0.17477,-0.15223,0.4988,-0.040134,-0.083109,-0.38235,-0.37043,0.50065,0.33966,-0.31732,-0.55932,1.0067,-0.26329,0.26995,-1.0854,0.47641,-1.1853,colors
orange,-0.42783,0.43089,-0.50351,0.5776,0.097786,0.2608,-0.68767,-0.31936,-0.25337,-0.37255,-0.045907,-0.53688,0.97511,-0.44595,-0.50414,-0.086751,-1.0645,0.36625,-0.52428,-1.3413,-0.2391,-0.58808,0.56378,-0.062501,-1.7429,-0.88077,-0.27933,1.4705,0.50436,-0.69174,2.0018,0.26663,-0.85679,-0.18893,-0.021125,-0.055118,-0.50337,-0.67157,0.55502,-0.8009,0.10695,0.1459,-0.55588,-0.64971,0.22046,0.67415,-0.45119,-1.1462,0.16348,-0.62946,colors
gray,-0.64556,0.50465,-0.54473,-0.41719,0.55394,0.37342,-1.1185,-1.094,-0.24813,-1.2286,-0.24688,0.45763,0.1383,0.23461,-0.015933,0.4482,-0.071958,-0.47912,-0.61465,-1.362,-0.82855,0.44151,0.40994,-0.85835,-0.6724,-0.89877,-0.51612,1.5431,0.27053,-0.0013926,1.4084,-0.78029,-0.014808,-0.64257,0.28192,0.10345,-0.31446,-0.22638,0.35096,-0.8508,-0.1199,0.91249,-0.015144,-0.23882,0.36892,-0.24001,0.052435,-1.4054,-0.036288,0.29872,colors
pink,-0.17271,0.95417,-0.84464,0.11818,0.087641,0.84337,-0.73347,-1.1093,-0.25643,0.097234,0.012908,0.13701,0.72675,0.33118,0.25684,-0.020378,-0.54783,-0.0069103,-0.38184,-1.3683,-0.80791,-0.22261,0.66085,-0.69439,-0.97622,-0.23337,-1.0628,2.0045,0.42777,-1.4457,1.6293,0.073724,-0.3537,0.55845,-0.28224,0.31409,0.2521,-0.37115,-0.19895,-1.2552,0.10809,0.08829,-0.47171,-0.70476,0.84641,-0.43109,0.0019027,-1.714,-0.11932,-0.51271,colors
purple,-0.51244,1.3755,-1.0203,-0.16129,0.46391,0.52021,-0.12554,-0.92437,-0.28947,-0.14339,0.33583,0.25146,1.0219,-0.12813,-0.39856,-0.076474,-0.69752,0.20905,-0.92861,-0.98031,-1.0163,-0.50338,1.1099,-1.046,-0.87251,-0.47121,-0.8332,1.7418,0.43909,-1.2089,1.461,0.31565,-0.3033,0.032728,-0.17728,0.49368,-0.0027891,-0.35415,-0.27876,-0.62239,0.094379,0.0017213,-0.68539,-0.81577,1.0079,-0.2438,-0.0022043,-1.4059,-0.43023,-0.56384,colors
one,0.31474,0.41662,0.1348,0.15854,0.88812,0.43317,-0.55916,0.030476,-0.14623,-0.14273,-0.17949,-0.17343,-0.49264,0.26775,0.48799,-0.29537,0.18485,0.14937,-0.75009,-0.35651,-0.23699,0.1849,0.17237,0.23611,0.14077,-1.9031,-0.65353,-0.022539,0.10383,-0.43705,3.781,-0.044077,-0.046643,0.027274,0.51883,0.13353,0.23231,0.25599,0.060888,-0.065618,-0.15556,0.30818,-0.093586,0.33296,-0.14613,0.016332,-0.24251,-0.20526,0.07009,-0.11568,numbers
two,0.58289,0.36258,0.34065,0.36416,0.34337,0.79387,-0.9362,0.11432,-0.63005,-0.55524,-0.28706,-0.47143,-0.75673,0.63868,0.22479,-0.64652,-0.074314,-0.34903,-0.97285,-0.53981,0.015171,0.24479,0.62661,0.070447,-0.51629,-1.2004,0.3122,-0.44053,-0.29869,-0.56326,4.022,0.38463,-0.028468,0.068716,1.0746,0.48309,0.2475,0.22802,-0.35743,0.40392,-0.54738,0.15244,0.41,0.15702,0.0077935,-0.015106,-0.28653,-0.16158,-0.35169,-0.82555,numbers
three,0.40545,0.43805,0.36237,0.25683,0.38254,0.68255,-0.97853,0.12741,-0.46129,-0.54809,-0.35384,-0.56697,-0.65756,0.50184,0.53248,-0.77956,-0.089944,-0.37572,-1.1097,-0.30734,-0.022657,0.11632,0.67704,-0.051499,-0.59719,-1.02,0.24289,-0.60216,-0.35183,-0.54053,3.9844,0.41521,0.040419,0.26909,1.1193,0.52924,0.37308,0.28924,-0.14714,0.23566,-0.72709,0.053276,0.45373,0.20374,-0.13384,0.015313,-0.22037,-0.15662,-0.30289,-0.77536,numbers
four,0.33375,0.44809,0.54759,0.21497,0.32637,0.70326,-0.95872,0.057798,-0.43454,-0.55322,-0.40482,-0.65793,-0.75076,0.58097,0.51968,-0.86607,-0.10026,-0.11609,-1.2668,-0.46131,-0.10421,0.13894,0.70448,-0.0040651,-0.56479,-0.99797,0.30126,-0.53745,-0.42073,-0.49521,3.9051,0.43253,0.017059,0.31489,1.2546,0.52463,0.46232,0.29622,-0.23879,0.12913,-0.75519,-0.065684,0.52592,0.20047,-0.15982,0.18293,-0.29966,-0.1926,-0.30174,-0.80437,numbers
five,0.21127,0.36828,0.49602,0.1788,0.43289,0.54778,-0.87517,-0.0041254,-0.27834,-0.40703,-0.50086,-0.68307,-0.53653,0.45692,0.79462,-0.73291,-0.053002,-0.30099,-1.0922,-0.15156,-0.04084,0.1819,0.75583,-0.09576,-0.52397,-0.95095,0.36684,-0.67003,-0.36539,-0.42036,3.9139,0.46919,0.048142,0.49178,1.0773,0.41012,0.37403,0.3022,-0.042142,0.15053,-0.90656,-0.027023,0.60757,0.29086,-0.22531,0.1413,-0.35703,-0.088937,-0.2961,-0.72497,numbers
six,0.29281,0.31322,0.58541,0.044983,0.38666,0.60109,-0.87665,0.09606,-0.19744,-0.49457,-0.41672,-0.75916,-0.6508,0.52929,0.6589,-0.79883,-0.1297,-0.28493,-1.2256,-0.22497,-0.011196,0.2396,0.77621,-0.14746,-0.62975,-0.93334,0.55396,-0.54297,-0.3178,-0.30144,3.8218,0.45976,-0.07032,0.44685,1.1156,0.41392,0.50005,0.19087,-0.14513,0.046651,-0.7588,-0.15138,0.56228,0.16382,-0.22547,0.11267,-0.32517,0.061608,-0.37181,-0.66733,numbers
seven,0.271,0.40263,0.49204,0.18279,0.40656,0.52487,-0.89496,0.22862,-0.28704,-0.46034,-0.6293,-0.59112,-0.61332,0.50357,0.74662,-0.85773,-0.054881,-0.37906,-1.2336,-0.00085258,-0.056966,0.20703,0.75846,-0.10698,-0.5638,-0.77717,0.35028,-0.70106,-0.33252,-0.39569,3.6042,0.48765,0.12197,0.41268,1.0879,0.47126,0.33869,0.10117,-0.055742,0.063739,-1.0909,-0.18791,0.55199,0.30131,-0.25402,0.24027,-0.40994,-0.11698,-0.2771,-0.81605,numbers
eight,0.0691,0.42247,0.67768,0.22944,0.40694,0.60352,-0.74431,0.25769,-0.24504,-0.46178,-0.52454,-0.91074,-0.49691,0.52518,0.59525,-1.0125,-0.1745,-0.15636,-1.3133,-0.20655,-0.036517,0.17894,0.76015,-0.16871,-0.52895,-0.8503,0.46335,-0.67872,-0.39183,-0.4092,3.5699,0.55358,0.076693,0.38853,1.1011,0.53138,0.49286,0.31955,-0.18245,0.014887,-0.85835,-0.19661,0.6663,0.1232,-0.046825,0.19542,-0.38691,-0.10834,-0.33741,-0.79467,numbers
nine,0.11967,0.099838,0.60112,0.10356,0.45172,0.55896,-0.91281,0.21906,-0.25593,-0.3985,-0.53094,-0.88653,-0.60865,0.35077,0.60692,-0.99208,-0.10708,-0.45321,-1.2554,-0.092974,-0.0073627,0.33985,0.78436,-0.14057,-0.44911,-0.71987,0.3185,-0.68564,-0.40698,-0.3476,3.4606,0.48291,0.33634,0.42867,1.0276,0.36609,0.42525,0.12409,-0.10621,0.07925,-0.97746,-0.10459,0.63682,0.20313,-0.35979,0.13175,-0.48944,-0.089255,-0.23389,-0.83616,numbers
ten,-0.43902,0.73368,0.50905,-0.3462,0.30353,0.24578,-0.56543,-0.023565,-0.16524,-0.49679,-0.28442,-0.46709,-0.18074,0.15855,0.6671,-0.86728,0.24113,0.06219,-1.0846,-0.038538,0.15457,-0.3967,1.0102,0.29877,-0.14961,-0.46682,-0.39891,-0.8396,-0.53424,-0.3373,3.0237,0.17529,0.3748,0.076426,0.8136,0.52744,0.57616,0.29958,-0.41319,-0.091445,-0.59129,-0.51534,0.28042,-0.023567,-0.41337,0.034601,-0.20836,-0.42381,-0.22908,-0.68114,numbers
john,-0.061106,0.92698,-0.02474,-0.82404,0.35838,0.51235,-1.7368,-0.077074,-0.52803,-0.91106,-0.89816,1.3488,-0.52135,-0.68333,-6.1652e-05,-0.22163,0.034219,-0.80921,-1.0316,-0.33231,-0.26263,0.21177,-0.16616,-0.63857,0.056367,-1.8269,-0.19825,-0.90269,-0.70902,0.55313,1.7004,-0.75809,0.0055337,-0.6174,0.54148,-0.41653,0.29324,-0.24988,0.29099,-0.41196,0.55186,1.1609,-1.0677,-0.23122,0.28835,0.72285,-0.59046,-0.9279,-0.82795,1.0663,people_names
george,-0.3811,1.1439,0.22862,-0.69739,0.068113,0.51787,-1.2119,-0.076324,-1.1163,-0.84702,-1.0995,1.2665,-0.31665,-0.63508,-0.07403,0.22557,0.22987,-0.33641,-0.59308,-0.26622,0.44539,0.23679,-0.32833,-1.0097,0.57147,-2.0506,0.13884,-0.52393,-0.30766,0.22662,1.4254,-0.47093,-0.44459,-0.71749,0.60025,-0.25851,0.26066,0.14437,-0.49375,-0.39191,0.030213,0.87374,-0.41465,-1.0149,0.28665,0.85734,-0.89267,-0.59213,-0.24017,0.77824,people_names
michael,-0.39706,0.75938,0.94322,0.033011,0.96796,-0.0066449,-0.40639,-0.19214,0.13932,-0.15261,-0.2675,0.60916,-1.8286,-0.095123,1.083,0.12797,0.89969,-0.65478,-0.61975,-0.24938,-0.21549,0.41997,-0.27961,0.27842,-0.13945,-1.589,0.40072,-0.62107,-1.1787,0.19207,1.5053,-0.46642,0.88615,-1.0113,-0.16165,0.12235,0.83705,0.34541,0.40766,-0.48241,0.32724,1.4955,-0.45234,-0.49736,0.41001,0.42342,-0.25317,-1.1688,-0.59791,1.2495,people_names
paul,-0.096465,1.1386,-0.25749,-0.99578,0.34209,0.22507,-1.3788,-0.39773,-0.30438,-0.073191,-0.011268,0.64175,-1.3504,-0.55745,0.57598,-0.58674,0.6033,-0.81784,-0.70194,-0.412,-0.76643,0.78894,-0.77811,-0.16635,-0.15995,-1.1553,0.49535,-0.2039,-0.96918,0.2904,1.6161,-0.35421,0.4055,-0.66021,-0.45709,-0.51323,1.3495,0.074981,0.51465,0.25872,0.74848,0.99228,-0.38891,-0.60016,0.48106,0.9174,-1.2255,-0.77291,-0.49613,1.0522,people_names
jackson,-0.39134,0.78789,-0.22087,0.31768,0.40545,0.31593,-1.1016,0.31293,-0.10915,0.30955,-0.69339,0.30565,-0.75051,-0.7279,0.76394,-0.17683,-0.11277,-0.7569,-0.33299,-0.49706,-0.21576,1.0187,0.074072,-0.62167,-0.42111,-1.3787,0.19566,0.1038,0.042856,-1.0349,1.6204,-0.57255,-0.044517,-1.0669,0.5097,-0.274,0.48332,-0.53257,0.14278,-0.42425,-0.18282,0.74243,-0.56117,-0.20539,-0.042919,-0.36733,-0.36503,-1.0481,-0.85008,0.82331,people_names
prince,0.98846,1.4535,-0.53081,0.10509,0.84058,0.14018,0.066562,1.3341,-0.75813,-0.35223,0.16588,1.0016,0.019623,-0.66392,0.092825,0.25132,-0.16274,-0.11954,-0.50072,0.67374,0.66886,-0.038679,0.20223,-0.15211,0.12169,-1.8324,-0.85664,-0.62454,-0.31896,0.60221,1.411,0.50157,-0.11413,0.51808,0.847,0.17618,-0.035265,0.56405,-0.38524,0.6027,0.34331,1.1836,-0.37197,-1.1069,0.00012758,-0.18202,-1.3696,-1.497,0.40618,-0.42445,people_names
elvis,-0.98435,1.0835,0.044871,-0.20281,-0.21017,-0.14225,-1.1912,-0.031976,-0.60418,0.96601,-0.16509,0.39156,0.06248,0.43945,1.7097,0.18045,-0.2464,-0.33608,0.17625,-0.37057,-0.35196,0.45418,-0.21421,-0.32262,0.35562,-0.48488,-1.2281,0.18759,0.61327,-1.0192,0.62522,-0.073737,0.20191,0.57148,-0.1971,0.42515,0.86352,-0.48294,-0.20999,-0.17305,-0.15607,0.68076,-0.55042,0.0046211,0.064689,-0.38284,-0.47656,-1.3636,-0.94758,0.062158,people_names
madonna,0.58595,0.61225,-0.71327,-0.47769,0.111,0.1381,-0.49167,-0.46693,0.22865,1.605,0.09327,-0.0072962,-0.31817,-0.16411,1.4388,0.058043,-0.39576,-0.73014,0.57163,-0.19981,-0.47005,0.82303,-0.089587,0.39947,-0.1527,-0.41844,-0.8673,0.5284,-1.0358,-1.1927,0.78495,-0.11713,0.045423,-0.15599,-0.33766,-0.47197,0.89096,-0.19492,-0.21066,-0.99523,0.17504,0.52816,-0.42265,-0.67628,0.58061,-0.3855,0.044207,-1.775,-0.41221,0.16386,people_names
presley,-0.74469,1.137,0.021315,0.13506,-0.5828,0.11596,-1.122,0.35719,-0.39427,1.0202,-0.34853,0.44473,0.19604,-0.35135,1.3359,0.037191,-0.85501,-0.27585,0.64657,0.11138,0.44667,0.30408,-0.22249,-0.42504,0.27539,-0.37864,-1.0857,-0.21499,0.53655,-0.85433,0.40937,-0.60299,0.39592,0.13574,0.069166,0.18437,0.49245,-0.55347,-0.4344,-0.28808,-0.34784,0.32225,-0.81521,-0.33215,-0.19937,-0.90152,-0.47596,-1.7872,-1.2018,0.39512,people_names
ringo,-0.0043811,0.59526,0.33538,-0.52736,-0.91722,0.47909,-0.072958,0.63161,-1.3165,0.46075,-0.81222,0.96675,-0.80257,-0.31695,0.54167,0.056734,0.0053962,0.55785,0.92515,0.10911,-0.24559,0.59011,0.20822,-0.045667,0.34977,0.070426,-0.1896,-0.12628,-0.44131,-0.8808,0.049913,-1.1499,0.37696,0.51892,0.5015,0.55385,1.3764,-1.0467,-0.42554,-0.67837,0.10469,-0.059421,-1.1722,-0.69326,0.97552,-0.54377,-0.12796,-1.0334,-1.6816,0.54473,people_names
orange,-0.42783,0.43089,-0.50351,0.5776,0.097786,0.2608,-0.68767,-0.31936,-0.25337,-0.37255,-0.045907,-0.53688,0.97511,-0.44595,-0.50414,-0.086751,-1.0645,0.36625,-0.52428,-1.3413,-0.2391,-0.58808,0.56378,-0.062501,-1.7429,-0.88077,-0.27933,1.4705,0.50436,-0.69174,2.0018,0.26663,-0.85679,-0.18893,-0.021125,-0.055118,-0.50337,-0.67157,0.55502,-0.8009,0.10695,0.1459,-0.55588,-0.64971,0.22046,0.67415,-0.45119,-1.1462,0.16348,-0.62946,fruits
apple,0.52042,-0.8314,0.49961,1.2893,0.1151,0.057521,-1.3753,-0.97313,0.18346,0.47672,-0.15112,0.35532,0.25912,-0.77857,0.52181,0.47695,-1.4251,0.858,0.59821,-1.0903,0.33574,-0.60891,0.41742,0.21569,-0.07417,-0.5822,-0.4502,0.17253,0.16448,-0.38413,2.3283,-0.66682,-0.58181,0.74389,0.095015,-0.47865,-0.84591,0.38704,0.23693,-1.5523,0.64802,-0.16521,-1.4719,-0.16224,0.79857,0.97391,0.40027,-0.21912,-0.30938,0.26581,fruits
banana,-0.25522,-0.75249,-0.86655,1.1197,0.12887,1.0121,-0.57249,-0.36224,0.44341,-0.12211,0.073524,0.21387,0.96744,-0.068611,0.51452,-0.053425,-0.21966,0.23012,1.043,-0.77016,-0.16753,-1.0952,0.24837,0.20019,-0.40866,-0.48037,0.10674,0.5316,1.111,-0.19322,1.4768,-0.51783,-0.79569,1.7971,-0.33392,-0.14545,-1.5454,0.0135,0.10684,-0.30722,-0.54572,0.38938,0.24659,-0.85166,0.54966,0.82679,-0.68081,-0.77864,-0.028242,-0.82872,fruits
grape,0.23017,-0.33868,-1.4997,-0.35237,0.16379,0.44121,-0.99947,-0.92632,0.35382,0.92485,0.50485,-0.21886,1.2231,-1.4518,0.71129,-0.21506,0.83317,0.72531,0.11544,-1.5128,-1.1301,-1.5405,0.84343,0.8874,-0.54008,0.31496,-0.59696,0.91315,0.16258,0.055713,1.0624,-0.92158,-0.96032,0.44075,1.0285,-0.45583,-1.656,0.59739,0.49696,0.0047636,-0.09192,-0.11237,-0.30139,-0.81769,1.1218,0.10276,0.47661,-0.12207,-0.30815,-0.4438,fruits
strawberry,-0.14643,0.70293,-1.2097,1.0417,0.3093,0.6464,-1.3798,0.6059,0.041217,1.0823,-0.05217,0.21955,0.9005,0.21745,0.95127,-0.020037,-0.35136,0.47722,0.25138,-0.57967,-0.42841,-0.2611,0.45012,-0.11463,-0.33793,-0.12501,0.48683,1.3193,1.2672,-1.1419,0.96611,-0.6229,-0.72498,0.4925,0.57839,-0.064388,-0.45671,0.01358,1.3574,-0.12537,-1.1469,-0.024781,-1.1212,-0.13477,0.27845,0.13102,-0.014345,-0.091154,-0.54015,-0.10812,fruits
mango,0.26381,-0.31832,-1.0953,1.3305,0.24761,0.045313,-0.39509,-0.52107,-0.016796,0.33175,-0.53252,0.43263,1.2306,-0.36963,0.15989,-0.433,-0.29768,0.768,0.71255,-0.85675,-0.076953,-1.0284,0.9337,0.24969,-0.13985,1.0316,-0.15809,0.80512,0.50535,-0.50557,1.1237,-0.45083,-0.27552,1.3537,0.3553,0.39403,-1.1213,0.027925,0.57582,-0.63611,-0.53506,-0.080186,-0.78026,-1.1595,1.0318,0.94337,0.026387,-0.96839,0.54497,-0.16479,fruits
pineapple,0.15848,-0.76146,-1.0108,1.6672,0.08347,0.56438,0.04086,0.034518,-0.37527,0.29167,-0.77229,0.5281,1.3271,-0.31932,-0.077804,-0.25632,-0.038079,1.1021,0.26768,-0.93017,0.66462,-0.96146,1.195,-0.11758,-0.15237,0.57881,-0.10344,0.91128,0.8994,-0.926,1.1036,-0.19987,-0.44895,1.6168,-0.067631,0.29682,-1.4074,0.17533,0.7228,-0.93541,-0.20745,-0.21869,-0.73091,-0.83792,0.31138,1.1264,-0.0075396,-0.88382,0.39123,-0.52075,fruits
kiwi,-0.3938,-0.48575,-0.8177,0.27144,0.2109,0.14699,-1.23,0.04128,0.23015,-0.075097,0.40016,1.0942,0.2384,0.49601,-0.31515,-0.16299,0.47857,0.4825,-1.0452,-0.60772,-0.80243,0.28539,-0.16535,0.013718,-0.025723,-0.093043,0.68574,0.23232,-0.08744,0.20484,0.40366,0.55869,0.20085,1.0984,0.63003,0.082532,-0.42141,-0.53543,-0.25036,-1.1416,-0.027382,0.044607,-0.21225,-0.013075,0.60638,0.61928,-0.28431,0.41212,0.32745,-0.2784,fruits
watermelon,-0.11169,-0.73634,-0.87099,0.66481,0.8636,-0.078829,0.52128,0.18377,0.21471,0.37623,-0.46969,-0.66462,0.948,-0.17327,0.661,-0.58227,0.079968,0.95237,0.60184,-0.4136,-0.23314,-1.007,1.3132,0.3262,-0.65398,0.40491,-0.60377,1.0947,0.58395,-1.0347,0.54564,0.10824,-0.33077,1.1553,-0.266,0.84132,-1.0607,0.7356,0.84014,-0.81504,-0.47628,-0.23533,-0.81993,-0.40683,0.98664,0.045194,0.4074,-0.41,0.22201,-0.25359,fruits
blueberry,0.005729,0.69043,-0.61139,0.90488,-0.45825,0.5606,-0.82501,0.16006,0.21863,-0.1522,-0.97995,-0.11221,1.759,0.1019,-0.058125,0.40704,-0.16604,0.96615,0.5457,-0.61711,0.41646,-0.44451,1.5398,0.41611,0.58843,0.63484,-0.89407,0.7315,0.70966,-0.28389,0.2564,0.062154,-1.1122,1.6644,0.38361,-0.37276,-1.1943,-0.2461,0.38788,-0.26201,-0.60349,-0.16341,-1.3842,-0.18575,0.68151,0.047705,0.2624,-0.34854,-0.143,0.067433,fruits
